0,0,0
0.22816748123462555,0.07383439652528144,-0.21347149653749095,-0.32130111996089894,-0.1591670607720402,0.04126413478071724,0.4822883068511859,0.19835872533418555,0.3051343292792079,-0.04873337417315176,0.08729953228785442,0.10866289827495233,0.17553336959337715,-0.36763764061934545,0.2722464373567178,0.20341480203192366,0.4600421838951385,0.10615455104166181,-0.18027157200143898,0.1995701653283017,0.13817970540631336,-0.0726045506058117,0.2741688718790617,0.20990265952781254,0.31983114479383434,-0.029428533945091217,0.19408332950202495,0.5201704977169382,0.37579981492650394,-0.30370873489584105,-0.39971142750296984,-0.4066072283038523,-0.361106946569776,-0.26138264815959344,-1.0733939816987395,-0.26412235195270595,-0.9999406597615558,-0.49063591413842084,-0.8158869287782986,0.03783464249380849,-1.0013055379344873,0.010241380840204362,-0.7706493214342659,0.22420156583922837,-0.5730755416059864,0.7412290213631612,-0.5536483942531873,-0.23129808436512403,-0.019910928466201017,0.746654269471989,-0.47217251159839124,0.24707478062551574,0.31621099671687086,-0.3818104499442792,-0.011606930297400102,0.06380386714651398,-0.6631704945758566,0.034956025909705056,-0.495981176862968,0.41430010510607845,0.9835490340249511,0.17049841850276434,0.2561917391279591,-0.3283380441536417,0.9860378183436792,-0.3951043486305444,1.3456581608711842,-0.27700024064940704,-0.07564473735266612,-0.4956466097591376,-0.4475932897577597,0.017243282450370295,-0.23255566298852487,-0.1370913432818236,0.007627774282882911,0.12862295316636094,-0.6496494134118108,0.40605405532124483,-0.5504124395413554,-0.2379056889762336,-0.5110388032475633,-0.012874060966485369,-0.2134775203371014,-0.0745850941749551,-0.11829598474880362,-0.0016110478960754487,-0.42976656734101476,-0.3511447406804729,0.17908387279181223,-0.15585087695523112,-0.23762674940689063,-0.40203359042982106,-0.05273830522287651,-0.42989726298148884,-0.41194324476208294,-0.5418317108169599,0.4507492157400384,-0.2054098112578886,0.3756621459047055,-0.2691042186995092,-0.4458558546227066,0.039622520514427655,0.19213395642404216,0.02777614602437326,0.437704948824461,-0.33741234965981076,0.744582622033216,-0.057189837837535985,1.358223027884029,-0.1606057984125165,0.9584219981123555,0.01923356036253602,1.2940923106576228,0.11360478125850011,1.30934561693311,0.1308244705283736,0.587664684139371,0.3688334583483967,0.8694409903363363,-0.15787657401307972,-0.6816551074348769,0.1074998385854063,0.4788599020643668,0.15676057884872915,1.0708108026653747,-0.21366574559669207,0.3884875350238969,0.16184292941382106,-1.8787897227550747,0.4443897138722494,-1.3561287989962103,-0.5413863471441038,-0.794272830839141,0.5768151642265484,-0.8988537315960837,-0.11032293263185348,-0.7098439581238319,0.29441049253673535,-1.4977214108283348,0.14871625890972817,-1.1265854404193718,0.4268892284902335,-1.425751637777203,0.7379080363205366,-1.254439238293007,0.6157389878863495,-1.9452664246163396,-0.23875327442574243,-2.633812723852513,0.7596681160830681,-1.6598093400478249,-0.43336699202008816,-1.2723676628327636,0.5564459390572928,0.08402668952290084,0.8924406474662829,-0.9269614836145917,0.16040011775603535,-1.435978685219837,-0.11340576405062276,-1.0313009942517148,0.47188399279672577,1.996005504144014,-1.4102839529246252,2.046268086175049,0.8847498740596674,-0.07294520421042837,-1.3480043523745753,1.720426788792877,0.3787342212677273,0.197128850039739,0.2881305899080801,0.8077517397615926,0.2780191180195356,0.5035697668228953,-0.31604775991286055,0.1709408353263172,0.12632891845013908,0.7749815145476256,0.30420726860865205,0.8533373107659272,-0.06864131009598855,0.5071738630948032,-0.48709368231759453,0.11394590801411325,-0.0942676739815632,0.8589198254072306,-0.22420144446689688,-0.0913047681981175,-0.4248795796473017,-0.2841493350426492,0.435334565324845,1.0344290469106316,-0.3760410305661807,0.19822944028875888,-0.34358964482642507,-0.4731277373650443,0.9600747002063397,-0.40469009617875096,-0.190120781710274,-0.6654526999724091,0.3182850034946033,-0.7148385393538492,0.18404042894321154,0.24675635993224804,-0.3726719924063682,-0.224292462969347,-0.5096056290505854,-0.4806332492424756,-0.24047703046461802,0.024403811137085764,-0.08226239532911928,0.15228803291327295,-0.12962494316542816,0.20170533428589366,0.21795425778660546,-0.17858067120180018,-0.6060162395259829,-0.14786007219354438,0.1932053491226077,-0.4986796826637978,-0.5158392711231933,-0.20254206000471106,0.12602608880094865,-0.12094168932724805,-0.17447835530125202,-0.2901986749042268,-0.5033706880240615,-0.20652029476531605,-0.4948037033226716,-0.9947824809434858,0.1486737953529547,-0.6240327737414928,0.05944485453102683,-0.8334331730864756,0.3495012803576284,-0.9653800499769493,0.19279682141314045,0.9556639475649679,0.2433472549721955,0.6466935062510131,-0.35818377489463765,0.6053523952753121,0.06879509419282981,0.9781051111294377,-0.7408533045014185,1.0972146754470993,0.25344064908101827,0.9341931426655731,-0.05408996994329162,0.7916346610684368,0.14566510242824043,0.04782676134895305,-0.24853692196771104,0.08678396383071106,-0.6994732549999727,-0.8205151000925048,-0.5716541988376086,-0.43697280217552337,0.00710324896970394,0.2657808033817569,-0.25581868953844566,-0.6414749201526913,-0.8003510205952868,-0.6413107141325933,-0.5016377375504912,-0.8666274670387408,0.09073296875918517,-1.9013056572539202,0.209106871378088,-1.9587707949260988,-0.4035167521271232,-0.50922435797821,0.19514502208713486,-0.3260484852913066,0.21006317479916325,-0.6203268842456812,-0.18327278571584713,-1.079597618534738,-0.23596236801073173,-0.4957695968547167,-0.30218775425099265,-0.9118295499098599,0.22051272255965648,-0.6122659281668432,-0.21869764476547524,-0.37108595176408404,0.5820727816254179,-0.40647707898917107,0.5266374394568837,-0.24431220641222628,0.10381342875403869,-0.5462552102736314,0.08530145509353301,-0.7881691888271294,0.6143989248592827,-0.4408719733530949,-0.33937048266529585,0.9938425413741424,-0.41694897638812406,1.1100658292078738,-0.23083139124018656,0.4184267643627488,0.06917149799199913,0.7915199199377265,0.32803190946914934,0.4031544354375051,0.14589441952408203,-0.03880389302912871,0.16786215624720388,0.3771796509314373,-0.0902428479397034,-0.033820360340430816,0.19478564810388768,0.4662090836278631,-0.0032424284988914675,0.24652343841594612,0.3512070052464339,0.010096921248333689,-0.30667296171081454,0.3138495652787279,0.3102022147260519,0.6063104075207788,0.018171311412066297,-0.12972336560798914,0.28791267694196376,-0.27730965269114216,0.5739239225889314,0.7512209324210638,-0.33601821921536795,0.4336955437088393,-0.23876009446022115,0.12177239768763895,-0.12674866538130025,-0.7474588704278426,-0.4231124040246119,-0.4031518187164553,0.29341133532677494,0.1895724120138819,-0.04207983136161997,-0.2746687082933436,-0.4521095315094502,-0.08167529386799649,-0.0592292811777639,-0.7836727081844773,-0.06896037831759542,-0.8183334676306616,0.22294349345875708,-0.5017889082891083,0.4711650673523836,-0.3595506521926506,0.09525800042521616,-1.003579263329627,-0.07297137228136165,-0.5018401513401943,-0.48056792157195793,-0.28362779601849236,0.48517341509792855,-0.5615595207866548,0.5103066038264296,0.19193273083238405,-0.015872345072511732,-0.15294963645911036,0.17325365706657064,-0.15025443311810238,0.39746648903927045,0.6073724129965381,-0.6155695915059374,0.5738816625785353,0.32635265842383204,-0.08341798155877446,-0.6948786454082174,0.3929923921089726,0.14846773841630562,-1.2739967272316188,0.1262669578978161,-1.415743583179861,0.19170318560306354,-1.2040204969872315,-0.19573074507154678,-0.7238669231168415,0.08934936456437594,-1.2648623282681757,0.3048310197359652,-0.9723781456346465,0.418724184919506,-0.9593849300843242,-0.28340432990728254,-0.7048238501222115,0.454753808962225,0.10934825863559781,-0.2674625223665753,0.09184003083249938,-0.013121703449869015,0.2752242453850678,-0.1006151057488107,0.16906856794993563,0.39665910420194883,-0.406041026653126,0.4983138792627632,1.311700520134624,-0.4482216361608421,1.1849226701158464,0.16477337830392394,1.6001032268561535,0.22443026197288168,1.0326063069134468,-0.38112346951738585,-1.2221223680278603,-0.05511154959005304,-1.238658153969967,-0.25783427229440953,-0.5486708197193549,-0.012150993963603671,-1.2178884693897263,0.5919224742251147,-1.2080792362737354,0.3128557920704023,-1.0492312679591072,0.32181104568785873,-0.8447449931509771,0.2750219530824945,-0.24465970469822448,0.3366527533243148,0.323516073722841,-0.005195200787500836,-0.4592808238645762,-0.0540354162604692,0.34065812761270153,-0.19962375836990698,-0.005921523065373527,0.30392345224752354,-0.13246835349829691,0.7029823196154831,0.2895399552656115,0.11217721645071066,0.9197668279999462,0.03552344887370959,1.2875323753366872,-0.08587520351524852,1.0422669547652916,-0.5955564155396348,0.1410855059458343,-0.35886690017179523,-0.20015541022660766,0.17755050598374844,-0.3417884499029165,0.3235806464003347,-0.12149022140789578,-0.2379228905282467,0.4414425812650566,-0.2786319656634002,-0.05484113060122135,-0.5240402764657531,0.5568324618239769,0.3537497283663958,-0.09256890356826172,0.049257154266029904,0.6718498417577821,-0.13477159811507383,-0.5712532714832149,-0.4560856296035506,0.40806724132544964,0.12437291626780034,0.5653609736899327,0.3408612113937159,0.6493403952063042,0.15012534893553414,-0.09482012070023374,0.41146915302642223,-0.1407978995115528,-0.381616676155472,-0.02353960392548816,0.00428853100966516,-0.07185212842350513,-0.07516794647117374,-1.3278912716533129,-0.35035882334719826,-1.2864020532813916,-0.06730432348117708,-0.9695112121847708,-0.5034942425914827,-0.9437993922738549,-0.184688706922102,-1.3945711176912965,0.019601078729352506,-0.4676736958375479,0.8425319514222347,-1.084382197837144,0.05889989082776455,0.1716661811943606,0.24737972036264624,-0.33383304229048333,0.28893195862777815,-0.007934782593529291,-0.25130316586290197,-0.12542987344089224,-0.02126621404866215,-0.3206012150955022,0.8551878697655614,-0.4022287869426709,0.014443646982782533,0.7475663064300293,-0.41175666790118465,0.7549247908113912,-0.3022303304895467,1.509407541917246,0.4388580163883219,1.6666288636885145,-0.04120310287712343
-0.30360598645236125,-0.2422969690202035,0.5932148325780268,0.49853337350222837,-1.126521245938077,-0.027258407990246335,1.1585051311499084,1.6052030308285083,-0.1375593125245442,-0.3559536630475144,0.4624030520455037,-1.289993250206547,-0.06579029354559615,-0.2855108907974043,-0.8277401696736583,0.048046573485632196,-0.754012466723378,0.27027581487990804,1.0572827185668696,0.43752630984503277,0.01365116852407043,1.6242621720114536,2.29822856580661,-0.17919143483329575,0.17333872413056142,0.14715506337958872,-1.7408967941328988,-1.0440434457821848,-0.08716176944532887,-1.3771234672276749,-0.17495763275504472,1.5256661167330694,0.2344743672399815,-1.6557728641996712,1.2790154637510034,-1.4088774624417386,0.09368320903622827,-1.3634521854226822,0.8777866078658217,-0.7150809352296245,0.6216469064526653,1.8167736590134558,1.639522612489745,-0.4598021667007286,1.8802244251751752,-0.5669825140255828,0.3101623425065932,0.09908537294857005,-2.187012519230013,2.807402578170354,-0.920172309072022,0.06676180648827705,-0.2215134815289246,0.9155139846575664,-0.8134282291017394,0.9443819563012026,0.5570220292543636,0.16747359238756454,-1.052800520880496,0.7211824187066614,0.07143798867784901,-0.4207221886485848,0.23693160020661144,-0.12036548343792983,1.018819190676826,0.09844739926284293,0.4560261391884437,0.22934811476327158,-0.38458133827230134,-0.14870705986811586,0.03094229778135225,-0.15429980557257703,-0.36424252340433766,-0.16838736713052965,0.47123139767531974,-0.35782468291671166,-0.19952939657741062,0.28470281752649007,-0.01252317169017018,0.03789696882900033,-0.01120312254016274,-0.06653026536969042,-0.2364524088151425,0.2324156478967965,0.07905599313577787,-0.13727943060836859,-0.5333362572843443,0.12478276168627221,-0.0886727060340443,-0.6115300148468521,0.17960816074728086,-0.5808979874562368,1.038626395564345,0.5971966098172188,0.6665187087884087,0.03604804130263679,0.5186162286535649,1.625624863088218,-0.38233936775182975,-0.2913303274261828,-0.10019906640726713,-0.4988943750398452,-0.9034920242639973,-0.22949050530019227,-0.34267791830308303,0.30288246820888975,0.20738824244296253,0.4065289386923927,-0.5792720564128584,1.4598774725728352,-0.06394520079800325,0.6091420229581775,1.045713236952449,0.391509240919513,-0.269329907876096,0.5347384571970275,-0.6837014487600969,-0.9223907344002288,-0.06767413275164211,-0.4168927354247746,0.9275005974038738,-2.308698272186619,-0.10938728914191237,2.3761057039363487,-1.9058186444239933,1.81489545089289,0.02931330883192647,2.115176963823275,-1.7280226316765124,0.7152617630118281,-0.6228166943159182,-2.58773871591867,-2.1709535083893567,0.12658906031322575,-2.8179097555554717,0.9675467822587629,-0.7019368506782103,-0.1550915322395649,2.630833234361041,-3.4579708609540645,1.590444577455551,0.9941445121586596,1.6673552844435653,-1.0645350251679004,0.7863980957176555,-0.5523580801435796,-1.1305271990749548,-0.6113060176822608,1.4418626741235283,-0.8826219510251663,0.29083967160539576,0.46461496290974574,-0.16781795834786908,-0.19269645002302865,-0.7729896881530864,0.283493870572186,0.24855357414010792,-0.004394307148697922,-0.08312988410756295,0.08493594612540238,-0.3963093367861191,-0.2094033171651974,-0.099040418493704,-0.3514992530746106,-0.041544018303429874,-0.2704024405642183,0.27485260959786556,0.7406807940821186,-2.009006881366162,3.3840500158230804,-1.4205924447085394,-0.5218722662216088,-1.242363828817673,1.2128260802892707,-1.1660044980841728,1.0878805055011282,0.21399227524652029,-0.1493889242000013,-0.44126402893633143,0.29003548894597925,0.09731584992818691,0.17156707085639497,-0.0467248613311215,1.0114426105278564,-1.821970738958657,0.38048756813679985,0.16867146567206961,-0.004148578619572767,-0.14759395276886308,0.585361072228537,-0.49500902295148996,-0.1695626583843985,0.15326553390064115,0.5957988165403202,-0.17516562836550237,-0.0567394768171152,-0.060288173594697486,0.6492493219063423,-0.3384399288110343,0.9358848670707666,-0.16935980277939905,0.2721621837765527,0.5659156646765772,-0.3328920718354222,0.1124227468443297,-0.3249784949731581,-0.1390299358675336,-0.3480677621321615,0.29796703407686903,-0.5760133817652522,0.17061885639741156,0.032317594079608596,-0.3625164884217564,-1.6849161943626512,1.5130995889156449,-0.25098356105194314,-1.3969131113338213,-2.0504889444991066,0.6624805410463785,-0.059748743406610384,0.1948996324001061,0.612613267438799,0.7813213062277435,-0.6701996597008046,0.7463700509344089
-2.43087787189444,-1.702253967015914,0.6347873883999573,2.140376925062431,0.2075885993836612,-0.07035657739012582,-1.000319393297091,-0.02122202923303169,-2.277386850134124,-4.477072616831367,-0.6996176366761098,2.5740853844289684,-1.839459414776869,-0.41242657248883313,3.1646398188037383,0.04893980202814189,-2.9299123541923513,3.3678265399156313,-3.1947141157678325,-0.9859942455871157,-0.14130449423656286,-1.8320185171419678,-2.096813998240636,-6.620687532692833,3.626987771740397,0.4782429564775764,-3.6949797734312244,0.8594943300397593,-1.7333244666174785,-1.151018655311464,1.7923758543707198,3.118105198712058,-3.4271707452070195,0.38469321894648983,0.33043744281630316,0.3388542026287889,1.5655043922452718,1.2704830720107856,4.25372336019119,0.5283976414856205,-0.06283282659120207,0.21629470259428313,-1.1463829606813682,-0.04288471295107328,-2.6296030392502554
0,0,0
0.1479912330281684,0.45482744194674174,0.2758313374882212,-0.14462443465775648,0.7374526870211636,-0.6629356497799519,1.1013973818258422,1.3708288811483682,-0.06666466354101838,-0.11250063225737666,0.20001669633614133,-0.6823652142361649,-0.2515085616850688,-0.05105456484071741,0.04667217995136255
0.7442335594631838,0.43101568764596676,0.1566163876219044,-0.9744470493747531,-0.3108584910736328,-0.14744198060036748,-0.01498245024110536,-0.28079753606188224,0.7432976283829926,1.4732792310726077,0.14145097912528862,-0.642459991014693,-0.011760505718852206,-0.00305483887449313,-1.0882189182268422
-0.8429900428505486,0.024291503425282593,-1.2472212745638662
