0,0,0
0.7505183400394974,-0.17382064283000243,0.5187568939504362,0.486853488445872,0.4825918431223663,0.5586324299853738,1.2082652877083304,-0.05824252074546989,0.8891516603817476,0.549660139839814,0.33588915727787416,-0.29232312232054586,0.6493265557178628,0.23014435706555214,0.6642617181054163,-0.36178414706277773,0.0198989787927397,-0.34827527991692026,-0.49373459400723646,-0.08833783137645339,0.15979209044881132,-0.06098835934331,0.6080188671702877,-0.7184759847981815,-0.18386655746099334,-0.04712312278024514,-0.07952439105298081,0.11925523684864561,-0.892965773826256,-0.2712767883902632,-1.391693119377762,-0.3081625238284496,-1.3436560875514998,0.1022555676783325,-0.5885563236385335,-0.2544840036640457,-0.41347196397128005,-0.2102597332957527,-1.1155175086526032,-0.09286503686101065,-1.3392057272718778,-0.11000040138343402,-0.9979936406074386,0.42451512930189567,-1.0989643541739176,0.4992571536276348,-0.7500263685684133,-0.2056271875585885,0.17704923528849217,0.6372180994492403,-0.45018605827154806,-0.07653806116316288,0.16626939999957036,0.19679768807608652,-0.07042955097607848,0.4207371203344201,-0.04776358122019227,0.10069343211681958,0.20719511826043144,0.4866674750879438,0.9596778719143041,0.21349366716875878,1.1084622239599315,-0.46006893600939985,0.905904354728025,-0.30401991801653544,1.2751213447532754,-0.314127021277683,-0.8292207824562571,-0.24006097422427478,-1.2041821355729065,-0.006125368350203959,-1.1898544812112597,-0.14760724851522142,-0.7955354861801068,0.10337370192567502,-1.7167181517156107,0.6432213170954292,-1.532532304953618,-0.24843168242117303,-1.5167788804061972,0.40310525119431045,-0.8604239520332052,-0.22315108828406724,-0.8307175090149801,0.44701292154296685,-0.6570734603883482,-0.2072839750704961,-0.4558276684850236,0.18283304626763847,-1.0464158128626313,0.0701645199453541,-0.7645468207830469,-0.24172531736018865,1.8762407121923237,-0.8582744272640822,0.9683017127855116,0.46812079684356855,0.5870391830686029,-0.18065796566692455,1.4841125003775262,0.7565683185801444,-0.9042416425882464,0.5472455456201383,-0.20676676844372044,-0.062408179359783565,-0.5991631171951312,0.4630778640634766,-0.9867841064354844,0.3844094991299946,-0.34156911594124795,-0.14846043052508168,-0.8838842177977717,0.019251263991181412,-0.7103087314130795,-0.0950051477140742,0.18040579470178011,-0.14866076980467607,0.2422905695093108,0.39311490922179276,-0.1757026020539086,-0.2723449054120061,0.05336808850447962,0.4534458285398982,-0.3517023006026915,0.03728328625851504,-0.31442957987313347,0.09243047496024723,0.14434409786494037,-0.2623064690244688,0.17656230435297207,0.09249259271686128,0.3361331222269001,-0.12118265643810185,1.0298236034982702,0.1867593587862414,-0.3988385158985727,-0.12078383471294293,-0.16078999355087767,-0.45774767403445404,-0.3760662034700742,-0.5028419281793786,-0.8095634669755419,0.26808674156643564,-0.7743349017848018,0.2477958977647653,-0.24082330811433147,-0.502771768907042,0.10385063135136827,-0.23936102835964138,-0.6224497882765583,0.24761857642231866,0.17899744296241393,0.3030364842080162,-0.21305769830181495,-0.18633015028117722,-0.6269527837793545,-0.24469978854546068,-0.24423931364966284,0.3474492277556675,-0.5815156405853424,-0.338317268207784,-0.20513147225906636,-0.04222617599255933,-0.24032951529837004,-0.17870994071985258,-0.08977268204798954,-0.03190954849800782,0.2620873787001894,0.3757520423325106,-0.11827442673886776,0.1570757595929869,-0.46028244372664573,-0.43360071878974615,-0.14937991615230145,-0.25513706824161836,-0.157820348137744,-0.3629522956980661,0.13287021637770183,0.11377912719173217,-0.8057305923367585,0.3329118243777343,-0.6402303150277182,-0.11437464209859263,-0.5437669726334707,-0.2648894780750643,-0.5925182341225705,0.16414760286397617,0.32824577893618884,0.24812532053584135,-0.26319456937793717,-0.07554863175556432,-0.19490435314815371,0.3492045994614811,-0.34461218082527073,0.5513654240756392,0.16906172437531725,-0.17730227276798924,0.754094358882917,0.5563254341040071,0.27515362855490166,-0.40253997552232923,0.4278937930288921,0.508488294334535,0.884762593410575,0.2455271486932058,0.611711117284047,-0.0157701826812025,-0.0667257305056709,0.30254901031093734,0.6412241901023013,-0.01941720504106303,0.5523494761230379,0.308875858374609,1.0185571429274332,-0.10887007535910304,0.8811949655638251,0.2691670081023346,0.210800785148317,-0.05173028171126612,0.7971382271755653,-0.6062910298352437,-0.17714075897490458,-0.26152071818714684,-0.06006399282139899,-0.2159539913066591,0.3137688034081012,-0.5330239955938569,0.13742081173486828,0.1768107884349249,-0.6186850152446712,0.1414512035689484,-0.7943517453612353,-0.007452100423135098,0.009406518797955584,-0.051396728618874954,-1.2403536522641463,-0.47899640850947456,-1.2977994748350383,0.39363042080092475,-1.1026492041288858,0.4126708373965561,-0.546438104588673,0.18670360530203287,-1.2410683602420212,-0.3507439164401127,-0.9531521323931255,-0.260884828311808,-0.6895123897002511,0.7887162930364054,-0.3148078740103919,-0.49597810167713535,-0.6728670476128068,0.4120147074687463,-0.5599833898343803,-0.4684975350229955,0.41979838549242254,-0.3670953721070595,0.23987232419169013,0.18693105009585362,-0.22031140791857687,0.8411288590720143,-0.141735738304399,0.6120721216978172,0.4527342833397218,0.15358620035624734,0.3088508234825691,-0.5085114415980642,1.6715468897879537,0.31559017100728987,1.4149173597073308,-0.2112689884389045,-0.3780256890409394,-0.369738081953439,-0.12802409522634378,0.2803509963479801,-0.32090005428708684,-0.2630502596260418,-0.4375895321429824,0.16429880238991018,-0.7035277414088414,-0.35894720672996777,-0.6714248944708833,-0.2824405141648645,0.017744742885483528,0.32826446233842105,0.2139180446731343,-0.18907681603962628,0.27690288029010324,-0.14288390196594491,-0.08474424327208485,-0.13653446041309672,-0.33707533081316876,0.4956604129828283,-0.19834032843027175,0.26651266336425605,0.21740787150558077,-0.04536183427506323,0.5367737008800597,0.0020325628977739684,0.031927993976309695,-0.19955608607909733,0.03933750482834752,0.012534294917886636,0.5689428973074225,-0.15795261037970373,-0.8063220144667169,-0.2393810288782839,-1.1061482964748721,0.4985383010983134,-0.7584009183330164,0.09347627580052527,-0.8415246859823832,-0.18692852747471733,-1.4453184561815515,0.2607901147667545,-0.4761641382800522,0.294926052148337,-1.0107724862667784,0.28643601870791846,-0.21250849965562213,0.12174915129173991,-0.31371909687711586,0.3372282221332446,-0.10980828697092666,0.4809015089135949,-0.8553172151082878,-0.27335167898528634,-0.7185266941318789,0.4468776650795256,-0.691414484884412,-0.31633231874941675,1.0178482023273492,-0.9225684007438087,1.3564126138546575,0.44524695577816686,1.110488669901962,-0.5923674619497333,0.5942054843412554,-0.038016324431693505,0.1218365512090227,0.22773560223081185,0.9723297626711972,0.01927015245016539,0.5566805782213664,-0.5295462173256442,1.2190602128496215,-0.09946040783483558,0.4735619403502262,-0.5661881509482504,0.9373834989485931,-0.5799710731755265,1.3746378805323365,-0.482200821783764,0.8570407900046624,0.029253573812388887,0.7480896775605054,-0.14285823249737495,-0.3500568278621641,-0.28450857556932785,0.2420692442643908,0.10809047321019152,0.8598217358475704,0.2534556250915056,0.6654992983354509,0.1362023280633996,-1.4620299333967153,0.9411629548538801,-1.312923442664543,-0.7472556215376316,0.048200451072209195,0.22518109952924847,-0.3580169736314611,-0.4439062836904319,1.1702436908344498,-0.22237225574656422,0.9820435590560281,0.3469035284045675,0.9066775842488995,-0.48685972776975195,0.6349186439895776,0.2243050206846857,1.3204716034181678,0.22349694604436257,1.1598901474114602,-0.2887013539019257,0.661586732078565,-0.3531605178544671,-0.07824590731453535,0.09963694887238385,-0.15878390338771062,0.3036807827019987,0.08626924946887782,-0.5566965031737955,0.09242478109211333,0.19730160078188758,0.27625568540934187,-0.6267510683735175,-0.26500881235908774,-0.7428361004458289,-0.7286958201905157,0.5988478810574124,-1.6520502415720082,0.2417590151898226,-1.0524675443593676,0.46245396440205877,-1.505678429625893,0.19572300421639485,-1.168164511988587,-0.350622322883142,-1.1645611130679958,-0.2629114104507046,-0.9827768722716935,-0.054435355410995985,-1.6167633301924784,0.5645520842099889,-1.0123282382116607,-0.41999862945209304,-0.7284609937829656,0.6925099805283328,-1.1126187923354323,-0.4733937931534076,-0.6657603106726383,0.792492408929416,-0.31532889897245053,0.02198549137167711,0.45886375966769727,0.3394641374566302,0.3468888245306064,-0.2327477232012787,-0.3458569066233783,0.6204258808091861,-0.14261807821588435,-0.060316196540606375,0.84974348840523,0.15336395447871526,1.1939737349468134,-0.015063184911699437,2.1399216297919974,-0.28561809549185646,1.615004311518299,0.021130875874700174,0.03932917715815924,-0.4279434740840415,0.16798993773942592,-0.2873967859952525,0.29742010067277097,-0.28724348064033023,0.6941433171250853,-0.44233446345642685,0.8578386008244361,-0.04095880735757688,0.8525522519880709,0.270868676124458,0.727655109532597,0.08497308355100765,0.1788610720843841,-0.5019518970939245,0.09015378021126039,0.31290215998949855,-0.3143426469885377,0.06772347942067287,0.30411032905346236,0.4392822130761422,0.5663543028848416,0.14521810800135007,0.1609818495784041,-0.24457078939502247,-0.7988829684261685,0.2299892879042905,-0.9834061056343365,-0.06966796745672046,-0.26078468629215273,0.028283841344812998,-0.2222551766805585,0.3928522266950488,-0.06946572598411738,-0.22297652399500775,-0.1881242221653115,0.28782200751470743,0.24651855544126264,-0.04958025992779589,0.6657752054905822,0.2793485269840993,-0.0445685477750974,0.06300994632057465,0.05515299348020222,0.39193172227235173,0.24618045686251142,-0.4702576036746203,0.024670412994930266,-0.34986952307468483,0.7348518866755874,0.4194111525955571,0.3772923999078852,0.23293376328890986,0.5499333055804205,0.4603096259726462,-0.2828456851165285,0.1744785223250158,0.023953122710170735,0.2119518540394581,-0.38385756948927946,0.4097195083327457,-0.10008861287573427,-0.4993111021684278,0.26745373825838736,-0.10670593330968389,-0.6110887960950895,0.22031544562641003
0.9610053461677223,-0.9183535795120049,-2.8746945646225126,-0.5420909108723175,-0.0028486704252877995,-0.20394637343033917,2.0371479519000943,-0.1941197596197347,-0.2274298938669121,-1.5967236466256576,2.2585171155617583,1.4801743702957755,-0.7593504643934483,1.432271403579879,0.9985379143719536,-0.5060617701524021,-0.037567343760857685,2.926043722278099,0.3320110060304403,0.9690704671826219,0.7246577417034907,-1.1252493597254885,0.3280450252784935,0.7391531999129336,1.7633583831375854,-2.485735161461753,-1.7122350610620813,0.9889937335185107,-1.024562328737054,-1.0208760813588809,0.07815367971774313,0.04275198890321068,0.6461461501036382,0.12311253220054708,0.22018787701813344,-0.1337426697659151,-0.7273828458392628,-0.5958239843031877,-0.23314684100781552,0.7247300393073721,-0.8081883247838522,-0.7265809605586065,0.3258215981235918,-0.19960841693313955,-0.30827752726935603,-0.32002037103256964,0.6239417713359029,0.35138429237600843,0.27234779972241796,-0.6121614461552459,-0.0729271815681381,-0.19389293411978967,0.4878771118969804,0.18591589462533506,0.7017215875658186,-1.0588206256888677,-0.7709887181696372,1.2017284107255841,-0.25292922254103617,-0.1807013589569985,1.4132643859624026,-0.8946771980481079,-0.8825588892229117,-0.7346412110415985,0.3236469970125637,-0.10625075252132268,0.43449573605853464,-1.5963699896007313,-0.1519106365018786,-0.89318078197583,0.6138806133194809,1.8761820898424453,-2.093908787732009,0.5540516011618157,0.13402210412233317,-1.2003062749717301,0.9416978241462785,-0.13712077193116595,0.09128894927390412,-0.6435206800354748,-0.21302747101943012,-0.6365078277761235,0.8330370266861554,-0.31622523139913505,-0.16567775011692382,0.11761607728658063,-0.8896388822812878,1.4066273799420292,0.02111334395170355,0.45683496494233,0.06573173037022075,-0.4050889642939734,0.2786405129645412,-0.3716737994295457,0.5231668269686764,0.08379486083288674,0.06778314667603813,-0.19861059218226906,0.5036096368064442,-0.35973177980345217,0.03619637429131749,0.49291628760063,-0.7031373057872323,-0.2778967264836671,0.4059229738835972,-0.8422951627927898,0.5238135712824212,1.5969312442112138,0.3251702517125804,0.08664770036389909,0.5672794718208124,-1.440945568891142,0.8817545583219734,-0.13943173130690348,0.987010836247205,-1.7235329516052398,-1.4331556205835856,0.7657782379564696,-0.6785380855895154,-0.84079751319628,1.9812356879269075,-2.05552746443526,-1.7647392225528742,-1.4104635131315058,-0.675969275729193,-0.3029449710643289,1.2183962377399897,-1.8772228117813363,-0.08758393779275979,-1.37235673219222,0.8133149336637318,2.2523442685106345,-2.445050665812739,1.233544725211033,0.16885323378154143,-0.6084699210629434,0.41655468439358356,0.5324734585049009,0.233604431810781,0.3685582617322536,0.5314642775206314,-0.9106634895720546,-0.08539136034377696,0.1866531611521181,0.5455036429520204,-0.9264159038520844,-1.065639998985768,-0.2276505882321081,-0.03484911202622177,-0.2421369262949421,0.6284032272567881,-0.2632438633134374,-1.9975916599895358,-0.08002242622194362,-0.14140099526622826,-0.6748665037983076,0.6568043012620117,0.29257000468158795,-0.30098650223413986,-1.5365188123897164,1.1495683300759114,1.102887389079497,-0.32274450799689447,1.0903379792562609,0.8629995056652374,0.8457660499760161,-1.1299285440287388,0.013007952564734459,0.1408959235809509,0.8767124839570819,-0.25195160014492407,0.8163585662839092,-1.3379804964552744,-0.5452022531400819,-0.7405672198940763,-0.1829280684394583,1.529833100834579,-1.8767347969674464,0.7364097808414514,0.048335302416969296,1.4864548808546585,-1.291587821982783,-0.5890151355401355,-0.03857147800871563,-0.27885598482299395,-0.4810161075541114,0.301214839528799,-0.8398566783685417,-0.31558943149028995,-0.9030646778413395,0.31296897822544334,1.1049856528408124,-1.7590659969157274,0.6391318844502399,0.543898363125088,-0.8580380683967629,0.10155141890337456,-0.7504337124222873,0.4110543517289244,-0.01450442145766755,0.0017965851403642537,0.04450875530777919,1.1058871219943738,0.5059608660054832,-0.49689704403258345,-0.4211674856078505,-0.780710776572456,0.5441525693605929,0.16232859706448263,0.34804350407521367,-0.058144569848957287,0.5045777442243964,0.29494480342396207,0.12028948454269668,-0.006356211097646028,0.06684683471462183,-0.46740337264684745,0.3606360057390175,-0.3963006397379217,-0.534443401447448,0.3815174107211061,0.4393796108773077,0.4157565672707564,0.11980443743153305,0.15073222644873158
-3.7721599428593366,2.695083181927413,0.6420540656908746,1.6700857351497267,-2.007775787517152,0.6365845231188398,-0.7697614671908533,2.7032094920163057,-2.2391540033273367,1.004747361653213,-2.3687142585227456,-1.637596448317269,-1.202662852769755,-0.6816918539770577,-0.3628607623986946,3.627140369284212,-4.2831170356319985,-1.192167804432773,-0.3510991337831432,-3.1546959896160143,1.5582835574410983,-0.46253626314092233,-1.996494807027737,-5.363362212090947,-1.1338590723155635,2.2849438734812124,-2.079889150106898,-2.429429506264081,1.1409913904181241,0.17820654695081264,0.513147760356477,-0.5489306702444137,-0.3657745227455624,-1.7369937363717467,2.3980178285917,-2.1039138373097446,0.4903547913668,-2.2025468610361365,3.0824756871545853,-0.835800529477351,-0.3830351889853025,2.8210121729920616,1.7703663633990676,-1.7871600245255108,-0.8298691816114627
0,0,0
0.459773681628752,-0.692754638080826,0.8488704380104722,0.2652934063373436,0.5249017322411849,-0.45544332500555756,0.4499920810322595,-0.5133952769712286,-0.3051917798907148,-0.05645530508236818,0.09004697562718235,0.707291777637762,-1.114587817083428,0.42497781248393046,0.21325252916431667
0.6092870873778268,-1.1448034939306486,0.3078983076482349,-0.7352027788723232,0.31602533018925233,-0.25244813966840624,-0.16195641887051698,-0.9989106723161022,0.23990767070904057,-0.12895976141862311,0.28606494886905826,0.3324528472440026,0.010876067242716225,0.0131719859937776,0.057643594526639676
-0.8546421405119473,-0.5967912562456078,-1.0718528431001568
