0,0,0
-1.1029042532908175,0.2725282831985828,-1.0952994645147434,0.35788891604437095,-0.8026040383224596,-0.02528393976715098,-1.236374660540205,-0.1641227395238745,-0.710269664096108,0.35455961222502796,-0.36384152582710266,0.2708932163265487,-1.1919339917169014,0.22219358572767633,-0.7290370968891966,0.034081891173000804,0.1955915998208715,-0.04864832255335806,0.17687152791695357,-0.08150280407877913,0.02723428153180762,-0.1789506244447573,-0.18560686420561112,0.4260102678917997,-0.21646232414673494,0.3045680172113769,1.048294389951531,0.19802703168361316,0.549721401173955,-0.6577756140016023,0.771224789420463,0.38028433443511467,1.3534584183682126,-0.24277590633848486,-0.7373213114047928,-0.33157966370828984,-0.21842742539961854,0.47003134324248624,-0.5427157456787454,-0.30045548038884506,-0.7785700921862406,0.23474706355658417,-1.0687056998211368,0.06447829341894003,-0.7028193510166271,0.1587746587996148,-1.5234579737071707,0.35854284195194014,-0.2270708728127915,-0.2387735267545595,-1.0191004301650446,-0.08932699168375537,-0.18951553153132977,0.08807886345199488,-0.03936901594157406,-0.4367765633059564,-0.9321261857748887,0.4844325707388471,-0.6615706705956167,0.26760328191603594,0.9763726736071706,-1.0077649777075302,1.0629775371204202,0.4882009620438887,0.553718728333303,-0.14973116150205565,0.40474913089849357,-0.07496468215482113,0.5316668777881495,0.07283417306370439,0.3337530685786967,-0.24412173999145606,-0.037147528835534474,-0.41963046541250204,0.6783367856189574,0.02821442368967948,1.1735360037512421,-0.4672281727131789,1.0820203369535004,0.11335208251814248,1.2523354159672921,-0.19234023414019627,0.7835843722376497,0.012437532843903976,0.6542496130138374,-0.19279645709471654,-0.17516266829590668,-0.20935503392393656,-0.19223947314159537,0.2305528667395036,0.9890075127254931,0.02531124011722056,0.6435892055486216,-0.18904424669269257,-1.136208307051052,1.0792884713612552,-0.994466118503496,-0.3334679567458692,-0.25716820096024223,0.4826402647945826,-0.6634828739422802,-0.2568812092677523,-1.1186711380408318,-0.30354428267853933,-1.0631692218461726,-0.2108271032565685,-1.4106333542916514,0.20984836692117015,-0.8799941119111718,-0.4228153473595726,-0.7555418195712438,-0.19247208831090823,-0.7481470316931692,-0.1107163557559261,-0.8563779992797957,0.056717361810286686,-0.7883504919709904,0.5125701405434118,-0.3788429262828958,-0.008630715922813044,0.38650759566284715,0.3805735980238538,-0.3292486577527111,0.2186780358416471,-0.2353178799867923,0.8791831969709031,-0.5673048846060416,0.6092966024685678,1.170159681486717,-0.32642635744377924,0.5542853571690535,0.33236672737842204,1.0789115664753701,-0.16810887501256755,1.0370039092195242,0.23281751078578702,-0.5223488624377609,-0.42823584661932906,-0.2921475116778371,-0.2538728971244861,-0.3859197706430551,-0.09445376889542001,-0.6393213407337132,0.4840477206067595,-0.6403832499884048,0.022436546912473935,-0.229161138425846,0.41913715550100733,-0.4304333627986118,-0.11534896262293268,0.13216086087515938,-0.03615698340742139,-0.4846565548879388,-0.30454113917204173,0.4701000944327416,0.10375183246180746,0.08689675727276452,0.6231247414568001,-0.3522516939630043,0.2284245789405905,0.10429755897892659,0.44725367184837506,-0.01449255449961769,0.3903362896683314,0.06833283267928739,-0.28097323445275835,1.042858768376362,-0.3356019018063281,1.2328414275275232,-0.4687825844044034,0.6820936285535161,0.09298406575766803,0.810657254217924,-0.5405989000147162,0.6675057804592969,-0.46094699112707077,1.1512499938938714,-0.22364363109076055,0.7291461519353901,-0.554620307948599,0.9199188565138317,-0.02726728803248307,1.4428819925581702,-0.12351978990701644,0.7267227149750524,0.5273125764730028,0.5587686946440076,-0.33348899937036536,0.08994476985345966,0.0801798331316647,0.6749413875419042,-0.07875361519096795,1.0625235608626977,-0.5488772728908017,0.7357663531893919,-0.518593957320267,-0.6960023027509384,0.7047674345673414,-1.006890264789138,-0.24103863733225614,-0.3882489383930802,0.538262396231312,-0.5353741738877777,-0.20415069253711388,-0.12745231635580512,-0.5885727833075307,0.7142842711002182,-0.5177385276369517,0.4857538255141145,-0.10733740828087122,-0.020584263842470866,0.3479539881371301,0.8815778781789354,0.04668756873346458,0.21970711824520617,0.0663453249161856,1.0189811908862068,-0.08784908448432166,0.1298504728887732,0.12050332250063452,0.7257138024391139,0.28672893381941894,0.07512606760863173,-0.31878265964075203,0.6059079638203017,0.032066191295118035,0.8677472340696226,-0.4018525196744474,0.41440671337767215,-0.36548641450736047,-0.6598850212701209,0.2897167782614333,-0.43954353588856776,0.17674247213712355,-0.5444060324972092,0.6784471421363141,-0.5442695782265701,0.10042465761203796,-0.6410580912430641,-0.4160633765149086,-0.5633050156990443,0.2717805313994401,-0.3064487209280715,-0.370007762300718,-0.6842936943545289,-0.08861570633247658,-0.8182652327266239,0.24055844165248955,-0.5595838979005371,0.501935049558744,-0.9155714315090333,0.19030708940997781,-0.2575267791082261,-0.19578873145909753,-0.3970466322041459,-0.14416543911535584,0.029400810446603417,-0.3257796852529735,-0.34108505565206987,0.12677547566065314,-0.19948610409959688,0.37757503599785813,0.18457923207867155,0.08844119599083769,0.48924067520536446,-0.5830592027935625,0.9171804308247866,0.16737447343125902,0.33820856232766705,0.06826595652619527,0.6848065264223803,0.17417993272411667,-1.117490033437036,0.19565771875774648,-0.8548266439978113,0.43075364705952895,-1.2362599978527875,-0.3488670398034616,-0.94071100997822,-0.28243905472872627,-1.0914824423731693,-0.46398268431674966,-0.7884902412211805,0.256345743336868,-0.8871714208414714,0.330384489538275,-0.6379178238773117,0.6704410389409572,-0.13481774982537081,0.19216869696803499,0.2333714678110517,0.09036528467684406,0.09284695670180994,-0.35005053677521786,-0.5100874775994633,0.3295140045297669,0.07707004526211762,0.5865910167985448,0.6742378861836048,-0.1581327183280679,1.197970765582824,-0.5250832108521106,0.9641598560833956,-0.6104345063672378,1.5030774197409211,-0.03604372711557204,0.5371439912906877,-0.1992770824104558,0.88493259279997,-0.03867244979567855,0.5106244918009023,-0.017708750658968733,0.17878505815996001,-0.47529288898758,1.0490805622274426,0.18034774177228963,1.2224838136727192,0.04379944513155696,1.701005165218453,-0.5796317259380234,0.3147887923282698,-0.4532500191618399,0.6736575915659003,0.28770873438653655,0.12093989604158988,-0.7068663123689319,0.7083834270290319,-0.2129686035522879,0.9575495914879331,0.33135974707228955,0.2795781760161229,-0.46249572781128034,-1.578292463522297,0.9972635864236038,-0.6734992267949041,-0.28375228479373615,-0.21104828032760933,0.6198131493325089,-1.306232797111308,-0.6444414925696315,-0.4850520645970256,-0.5103223785065336,-0.4173615940464792,0.3149567754019981,-0.27465253680919127,-0.5731263161273935,-0.18886102491830478,-0.2011290610741681,-0.07496688787162607,-0.6470750211728589,-0.4222013771720695,0.02299993200829861,-0.40561059473975775,0.07495462213726872,-0.5965176205830984,-0.15898356128009297,0.1480096879039527,-0.0936649910172619,-0.03475024784847239,0.3215917331645932,-0.5800635290531917,0.3632601209123882,-0.0052481604703258095,0.2638728813038515,-0.302586971191074,0.052532762199385775,0.19812741823590993,-0.4434863984730664,0.2083673172264419,-0.35764972538141404,-0.32480238884312324,-0.4512339138372895,-0.3524594563581609,-0.4199440484046057,-0.5292435201931567,-0.36053312829411066,-0.5805296021669282,0.42708806926821913,-0.565470530025575,0.1880464921447945,-0.7596430024419515,0.40980585075669146,-0.28585640365872483,0.12685314809540826,-1.1611096611092668,-0.2864496908146114,-1.332216144553633,0.20890315995626865,-0.8009861231484194,-0.3061133306653634,-0.8623214180371714,0.2733994754888012,0.5437544916432899,-0.09772901168417686,-0.5269877183771062,-0.09166313162231106,-0.9601982493972679,0.417839906733126,-0.07853272342351643,0.3664693003522186,1.006151037883123,-1.1774135261330194,0.903591972771182,0.5682676597941472,0.2312389837079542,-0.19055680532639688,1.053707673902898,-0.17010472097408838,0.35439110981756,0.11457491433606613,0.45645709389610334,0.34317069228317926,0.6638532142314326,0.24340204409996638,0.33938563131532173,0.0933649433621469,0.49341235650394427,-0.11377874016986239,-0.03500106849935913,-0.15604075950552482,0.9767610154636689,-0.23253415299093147,0.1625047287787346,-0.4309000431676425,0.5636912980554933,0.0892875645821776,0.16307225243368395,-0.3624307815965029,-0.24183251949206633,-0.3836266022686557,0.7103546350975144,-0.30252925478432124,0.3725935593734543,-0.3717498780458344,-0.7058620682155825,0.6190602882598533,-0.6708937693475088,-0.13445014931546723,-0.44791775942150025,0.6414296479636596,-0.8336554649184262,-0.3257050491806023,-0.6671258686329982,0.0886098611618669,-0.42774607480521126,-0.3165563896003026,-0.8070996322097832,-0.42384582714454255,-0.4642802187742945,0.2695294325536747,-0.282120667990206,-0.24252366979004125,-0.5037330527076228,0.44177142536691355,-0.08532632273056898,0.1127733931030304,0.030181820801289883,0.2201978901233366,-0.5398443347226518,-0.3566643401329452,0.3821108153376321,0.04945141134522393,-0.5384857251735149,-0.3716518519497714,0.0887501099043907,0.4407578237384438,-0.40643745346836924,0.6364585666344438,-0.02368903278735436,0.6413338856878503,0.17327208487791873,0.29154998918664915,1.4134741983971182,-0.3097557515869746,0.7306497885057917,-0.23879367017502173,0.7638809890283107,0.34509633689547475,0.904107155647659,-0.45071794772103163,0.7554584039985697,0.348479466446896,0.6561251717077219,0.013569187771672193,0.8100814892268651,-0.14809325508057417,0.5889154306061133,0.041209493293258764,1.335916768305726,0.0881156895851507,0.7171768476470042,-0.4971279822478088,0.8732760575222304,-0.14877629221807287,0.039695653899815865,0.0829827205270021,0.06806061063916365,0.14573597848484207,0.12594559330262822,-0.05362679340007046,0.5210357650143372,-0.5253116930793961,-0.746133780802607,0.17586788143259438,-0.968387964950691,-0.38532552480784704,-1.2328896634456192,0.021462691363248174,-0.9824518007433186,-0.5151450170806354
0.048629906913798294,0.6578132489811671,-0.8678611991720504,0.560625441666592,0.3819363431256581,-0.5384595869464608,-0.32629016517564785,0.1357717775158534,0.39023817724503534,-0.5483959970983557,0.0470677789952117,0.8218952485401387,-0.008759247459636537,-0.26222123645902895,-0.2981346705182244,0.7436733038548806,0.5479483091710977,-0.5566438407594967,1.486513181099128,0.9068559348404166,-0.7967885147404002,-0.6688550614236868,0.7530199105479529,0.9525907628837287,-0.6929719000895703,0.5209389812543214,0.8522467709305307,-0.17991887903016032,0.6096838066729553,-1.330074064933809,-0.8383812987005295,0.8075194021318182,-0.3352004642664964,-0.15862773389466006,-0.8601985602652025,-0.5551721520890407,-0.19136843649033958,-0.3800805971979537,-0.7561496633881925,0.6890715353061448,0.7478738184342156,0.21854698727848038,0.6292479618358655,-0.22192516782201427,0.4099932251016023,-0.5746370491292303,-0.31301183297658197,0.661007025527718,-0.17235615199933102,0.05812812669279312,-0.05285412540038381,-0.3089458904588833,-0.47783326305507084,-0.3423230752187554,0.48839216699299026,-0.24541130182099616,-0.3110181916348201,0.5044395191358545,-0.08065509349876233,0.3301242725837552,-1.6355521747090342,-1.0718000474506548,0.9794186917868816,-1.95430315021666,-0.5708689965557185,1.0742850669195085,0.5061847497312263,-1.2802711854923834,-1.8280327875104259,1.3373630177333025,-0.27867307631311344,-0.7995961797556577,0.9595882812063984,-1.0962722492635708,0.6916753411507786,-1.3698538101392557,-1.0895340668831122,0.7618642198631156,-1.1569915604452625,-0.3572472553522372,0.9462680043666789,0.3172608294805142,-0.7213537791048797,-0.9751002096214861,0.7410063846934034,-0.5779927430933752,-0.26683343517438507,0.2669105097341491,-0.8679110759652077,0.6349303114929192,1.567718244552409,1.3738608441480316,-0.9571076499983301,1.537243853267746,0.8706818980831963,-1.0906036197382785,-1.0097208571566525,1.2150573355030614,1.8756208024085101,-1.017121134395531,0.8249352620161765,1.2004200712955508,-0.2671409879457817,1.0415766678718263,-1.3155860592452397,-0.6526916129032908,0.41235765496931165,-0.19703130700841356,-0.2731621848851747,-0.502148545246857,-0.4314418217944736,0.0064689317624782505,0.46981641832818277,-0.054633283283411195,0.42964385998922294,0.508695646367966,0.06221749212986776,0.27684139494194376,-0.387627506456842,0.12960416459908045,0.6901212978300155,1.8685271469770026,-1.8109217171075693,1.0270470674964334,-0.39946435696696825,-1.9199440143687319,-1.7706926920419346,0.4217885368426319,1.3267635374894193,-2.1124811693433787,1.0048085156592383,1.4838151477902874,-1.2257714880509987,-0.04244977955874517,-1.7322308475005352,-0.017959799935226242,-0.17139854467873666,0.8595202000565121,-0.8538452908267232,-0.19120202053287152,0.5271736112155266,0.20525328589815997,-0.7114364223844236,-0.7964544672806547,1.509111965410435,0.6430366137965918,-0.30048944414094103,0.329562347433324,-0.6656159790322216,0.8375529693795691,-0.9477167341725031,-1.25827451884587,1.9845075637997671,-1.2287635749523111,-0.3455120334600209,2.0368092652116148,0.9251985696557969,-0.7699646659319614,-0.7123385291382984,2.593704440263392,0.47667985098043286,-1.582227186157885,1.5436255446852298,-0.13208846919202555,1.7098509393806602,0.38114466049298196,2.2490025065791643,-1.7739618744083656,1.167115220739411,0.3599696739262248,-2.680114404025048,-1.5182920020202226,0.46595726759218026,1.1217708854088322,-1.6985936859518198,0.5220143863268323,2.1089118940673477,-0.8145134501377793,-0.5739620805417602,-1.8939147062183685,-0.935239741038706,0.40932712584132275,0.2995125968600436,-0.8739290202886609,-0.9248930352620427,0.3846597885430042,-0.03150671049142177,0.0648225577071568,-0.8700676263241339,0.6571384285588667,0.9808361747716771,-0.4857153024672737,0.6639782021002125,-0.7650161826901452,0.7243405286340008,-0.3447598529575513,0.30430465111445626,-0.2939576418872419,0.5040009307509035,0.23767930558469103,-0.26927628150829613,0.3579146623961579,0.23637633451539145,0.3965037339632229,-0.04571140496450633,-0.18883254274048053,-0.3012953627629152,0.3022415842430269,-0.2511122295490256,0.5178699800694656,-0.7971928134166739,0.07788190668537481,0.944417957567669,-1.2682811122060378,-0.5788975351336945,0.1951037457399915,0.13139055308029746,0.03312086716574664,-1.098685905254597,0.5009198430835667,0.3998800925715101,-0.4139687226334551,1.1243505427927358,-0.932407480328317,1.212724294731601
1.039172543746089,0.7128350439390421,-1.5723975906358274,-0.9349732785728212,-1.8683872484640798,-1.436074492489325,0.052120839327585475,-0.5684487603592391,2.9171644985647602,-2.525952995158926,-4.490886520280389,2.9849565055122964,-1.4164685731327071,-0.31652094396112257,-1.8330657282197078,-0.4740038494434064,1.7215817484372256,-1.6617839830975198,-0.1206177556049779,-3.536197608802581,-2.125045531027355,3.2207759828461975,-1.26497366136415,-4.376814973028139,0.2749302899803448,3.145907449283039,-4.881516888517326,-1.971080249097841,-0.17627586341345178,-2.088934937211529,-1.5990750355218082,-2.5953173560628984,-0.3956785226048668,0.6610974839608933,2.4022116912021385,1.4347976406216016,-3.4221163426394865,-0.21748891418453006,-2.0663376423939774,0.45308370926246555,1.3677472945002582,-1.4806190244026625,1.2969184294304406,-0.7470983537907229,1.6642617193969051
0,0,0
-0.24137483376679414,1.043306906185785,-0.6929491479665424,0.6759205570385757,-0.4854631243629618,-1.0337312721632868,-0.41157177910298426,0.44692893310681864,0.33477529137296974,0.22822175031497322,0.7631143431862277,0.6654528567898906,0.007615751012077889,-0.5060662718875474,-0.4549657623523255
0.3639450676204072,0.5154353513347686,0.6059308110757027,-0.049897173761558944,-0.13690526679529477,-0.2906218054506143,0.18563757578545226,-0.11364740853628215,-0.01580499221402043,0.5409451104911376,0.42720892823693374,-0.4475839146364796,0.7405578759934761,0.45096190351321264,-0.009009487236715482
-0.2579737507060892,-0.04030951325019826,-0.5580023171182467
